{
    "in_shape": [
        null,
        null,
        2
    ],
    "layers": [
        {
            "type": "lstm",
            "activation": "tanh",
            "shape": [
                null,
                null,
                16
            ],
            "weights": [
                [
                    [
                        -0.2601049542427063,
                        -0.14425593614578247,
                        0.5759117603302002,
                        0.07500040531158447,
                        0.8728348016738892,
                        -0.6488245725631714,
                        -0.4466535151004791,
                        0.2748698890209198,
                        -0.6567777395248413,
                        0.34505072236061096,
                        -1.0437886714935303,
                        0.21409299969673157,
                        -0.11162286251783371,
                        0.18813176453113556,
                        -0.2122143805027008,
                        0.09310002624988556,
                        0.12133567780256271,
                        0.3125133216381073,
                        0.02908414974808693,
                        -0.1830681562423706,
                        0.16238750517368317,
                        -0.01918986439704895,
                        -0.006780911702662706,
                        0.49760425090789795,
                        -0.08352792263031006,
                        -0.07331857085227966,
                        -0.09652508050203323,
                        0.08187859505414963,
                        -0.02737078070640564,
                        -0.055596623569726944,
                        -0.28353390097618103,
                        -1.1696979999542236,
                        0.7239444255828857,
                        -0.024302279576659203,
                        0.005950616672635078,
                        0.2022160440683365,
                        0.18748468160629272,
                        0.12512114644050598,
                        -0.15422376990318298,
                        -0.29670512676239014,
                        0.032114945352077484,
                        0.22006019949913025,
                        -0.2953138053417206,
                        0.3842288553714752,
                        0.2852756381034851,
                        0.9171701073646545,
                        -0.18034930527210236,
                        -0.7584562301635742,
                        0.01091163419187069,
                        0.46967828273773193,
                        -0.8602291941642761,
                        0.02915140800178051,
                        0.6441231966018677,
                        -1.2509145736694336,
                        -0.5510266423225403,
                        0.37337595224380493,
                        -0.2521626055240631,
                        1.0507241487503052,
                        1.1014182567596436,
                        0.023416442796587944,
                        -0.5832232236862183,
                        0.19212569296360016,
                        0.7644118666648865,
                        2.019674777984619
                    ],
                    [
                        -0.15908414125442505,
                        -0.08861645311117172,
                        0.12069904059171677,
                        -0.08141161501407623,
                        -0.15811339020729065,
                        -0.17639560997486115,
                        0.08492756634950638,
                        -0.14139235019683838,
                        -0.26550155878067017,
                        0.10512091964483261,
                        -0.02403934672474861,
                        -0.08050317317247391,
                        -0.05044206604361534,
                        0.04576249048113823,
                        -0.238261878490448,
                        -0.07991495728492737,
                        0.24284839630126953,
                        0.12397030740976334,
                        -0.1628805547952652,
                        -0.08794150501489639,
                        0.03330480679869652,
                        -0.07007098197937012,
                        0.04390377923846245,
                        -0.2343730926513672,
                        0.0457635298371315,
                        0.004596606362611055,
                        -0.3581364154815674,
                        0.036484017968177795,
                        0.1479799598455429,
                        -0.015249259769916534,
                        -0.31155943870544434,
                        -0.06040121614933014,
                        -0.03156321495771408,
                        -0.04040972515940666,
                        0.23042918741703033,
                        -0.020749865099787712,
                        -0.336958110332489,
                        -0.26831504702568054,
                        -0.04952109977602959,
                        -0.2740159034729004,
                        0.07416625320911407,
                        -0.049917109310626984,
                        -0.18668688833713531,
                        0.021205062046647072,
                        0.010083422996103764,
                        0.0006739930831827223,
                        0.09946653246879578,
                        -0.16228742897510529,
                        2.966583013534546,
                        -0.21788878738880157,
                        0.17294150590896606,
                        0.53724205493927,
                        0.01811695471405983,
                        0.2460394948720932,
                        -0.12708722054958344,
                        0.06945432722568512,
                        0.17311382293701172,
                        0.2837474048137665,
                        0.32907834649086,
                        0.39422616362571716,
                        0.27199214696884155,
                        0.21723119914531708,
                        0.30527642369270325,
                        -0.15281961858272552
                    ]
                ],
                [
                    [
                        -1.132542371749878,
                        -0.6299331188201904,
                        -0.3640053868293762,
                        0.07564590871334076,
                        0.5329417586326599,
                        -0.8452264070510864,
                        -0.11961663514375687,
                        -0.843222975730896,
                        0.7431618571281433,
                        0.17540505528450012,
                        1.147484302520752,
                        -0.3574730157852173,
                        -0.4891987442970276,
                        0.5022379755973816,
                        0.5102885365486145,
                        2.0789291858673096,
                        -0.223982572555542,
                        0.24761179089546204,
                        0.03405651077628136,
                        0.6705609560012817,
                        0.21193771064281464,
                        -0.10191643983125687,
                        -0.2211262732744217,
                        -0.6121050119400024,
                        0.5500372648239136,
                        0.4867626428604126,
                        0.12831637263298035,
                        0.15586356818675995,
                        0.6153972744941711,
                        -0.07036492973566055,
                        -0.019683653488755226,
                        2.9160306453704834,
                        -0.35692790150642395,
                        -0.7966067790985107,
                        0.6974560618400574,
                        -0.9620010852813721,
                        -0.08842730522155762,
                        -0.7857516407966614,
                        -0.06188177689909935,
                        0.15890401601791382,
                        0.10939007252454758,
                        -0.2307066023349762,
                        0.9801178574562073,
                        0.1304197758436203,
                        -0.03522660210728645,
                        0.15532410144805908,
                        -0.23861722648143768,
                        0.01565122976899147,
                        1.1553523540496826,
                        -0.9667583703994751,
                        1.8345293998718262,
                        0.463697224855423,
                        -1.0018439292907715,
                        1.9356764554977417,
                        0.042949024587869644,
                        0.7660292983055115,
                        0.10274261236190796,
                        -1.0597453117370605,
                        -1.5535080432891846,
                        -0.7335939407348633,
                        0.8948279619216919,
                        -0.24202850461006165,
                        -1.4356439113616943,
                        -4.849785327911377
                    ],
                    [
                        -2.0034239292144775,
                        0.5221448540687561,
                        0.10014849156141281,
                        0.32158079743385315,
                        0.10812951624393463,
                        -0.04367585480213165,
                        0.14397042989730835,
                        0.2979341149330139,
                        0.21003654599189758,
                        0.21399176120758057,
                        0.02194065973162651,
                        0.4563925564289093,
                        0.00856039673089981,
                        0.32683318853378296,
                        0.0002790519210975617,
                        0.2954760789871216,
                        1.6174274682998657,
                        0.05983936786651611,
                        0.027451196685433388,
                        0.09423535317182541,
                        -0.0608939491212368,
                        0.07991542667150497,
                        0.3241559565067291,
                        0.10596561431884766,
                        0.20366120338439941,
                        0.3773652911186218,
                        0.01247907429933548,
                        -0.6763707995414734,
                        -0.12931190431118011,
                        -0.5317903161048889,
                        0.10342820733785629,
                        0.39023691415786743,
                        0.6844229698181152,
                        0.07175922393798828,
                        -0.039832454174757004,
                        0.09821130335330963,
                        -0.03365003317594528,
                        0.1357344090938568,
                        -0.08477136492729187,
                        0.03336071968078613,
                        -0.05246839299798012,
                        0.2986479103565216,
                        0.18845489621162415,
                        0.11872797459363937,
                        -0.048256371170282364,
                        0.18803942203521729,
                        -0.06061635538935661,
                        -0.21502907574176788,
                        -1.488799810409546,
                        0.22000809013843536,
                        -0.19614243507385254,
                        1.296260118484497,
                        0.08971820771694183,
                        0.16963380575180054,
                        0.06926397234201431,
                        -0.015115426853299141,
                        -0.05252176523208618,
                        -0.32543623447418213,
                        0.06909988820552826,
                        -0.046360477805137634,
                        -0.39739173650741577,
                        -0.3386204242706299,
                        0.019359612837433815,
                        -0.03232045844197273
                    ],
                    [
                        0.901346743106842,
                        -0.07204641401767731,
                        -0.20106254518032074,
                        0.2519981563091278,
                        0.014532318338751793,
                        -0.07477633655071259,
                        -0.15061406791210175,
                        0.14069649577140808,
                        -0.21406514942646027,
                        -0.1730630248785019,
                        -0.22199563682079315,
                        -0.5754939913749695,
                        -0.16520823538303375,
                        -0.5242249965667725,
                        -0.07454032450914383,
                        -0.01498854998499155,
                        -0.2391994595527649,
                        0.24050909280776978,
                        0.05200137570500374,
                        0.4127466380596161,
                        0.059292007237672806,
                        -0.060204800218343735,
                        -0.01077956147491932,
                        0.034816473722457886,
                        -0.11435183882713318,
                        -0.10925047099590302,
                        -0.09032478928565979,
                        0.2929331064224243,
                        -0.019292598590254784,
                        0.18642215430736542,
                        0.05565190687775612,
                        0.04904073104262352,
                        0.11095438152551651,
                        -0.10748621821403503,
                        -0.11460979282855988,
                        -0.02626320905983448,
                        -0.08175033330917358,
                        -0.010669494979083538,
                        0.16215133666992188,
                        -0.07610956579446793,
                        -0.26953423023223877,
                        0.24961082637310028,
                        -0.010766278952360153,
                        0.07903968542814255,
                        0.05544344335794449,
                        -0.015749236568808556,
                        0.19517162442207336,
                        -0.3177542984485626,
                        1.708383321762085,
                        0.10942557454109192,
                        -0.12580367922782898,
                        -0.002596805104985833,
                        -0.02295805886387825,
                        0.3139137923717499,
                        -0.12493352591991425,
                        0.04434541240334511,
                        -0.250126451253891,
                        -0.035222917795181274,
                        0.11587506532669067,
                        0.31994354724884033,
                        0.36560237407684326,
                        -0.44921839237213135,
                        0.09201323986053467,
                        0.010203788056969643
                    ],
                    [
                        3.8124098777770996,
                        0.744600772857666,
                        1.0740196704864502,
                        0.05958879366517067,
                        0.18048322200775146,
                        0.09411558508872986,
                        -0.3074134886264801,
                        -0.35731610655784607,
                        -1.3102147579193115,
                        -0.5380211472511292,
                        -0.6320828199386597,
                        0.22919343411922455,
                        -0.31831154227256775,
                        0.37931063771247864,
                        -0.019504595547914505,
                        -0.9031396508216858,
                        0.3538435995578766,
                        -0.1844729781150818,
                        0.8462411761283875,
                        0.1586184948682785,
                        -0.1070467159152031,
                        0.25766512751579285,
                        -0.34067198634147644,
                        0.32998019456863403,
                        -1.013053297996521,
                        -0.4402207136154175,
                        -1.482657790184021,
                        -0.1283799558877945,
                        -0.27867352962493896,
                        -0.4584866166114807,
                        -0.16802148520946503,
                        -0.9526903033256531,
                        0.6667925715446472,
                        0.18540357053279877,
                        0.9143072962760925,
                        0.15524685382843018,
                        0.7982540130615234,
                        -0.7442565560340881,
                        -0.4828338623046875,
                        -1.149300456047058,
                        0.21857599914073944,
                        0.1663069874048233,
                        1.2794147729873657,
                        0.6011301279067993,
                        -0.18968524038791656,
                        0.24237938225269318,
                        -0.7274660468101501,
                        1.8965575695037842,
                        2.0668883323669434,
                        -0.5662292242050171,
                        0.8199442625045776,
                        -0.3417137861251831,
                        -0.4144916236400604,
                        1.3021602630615234,
                        0.4458787143230438,
                        0.2602340579032898,
                        -0.3159446120262146,
                        -0.1833013892173767,
                        -0.7582657337188721,
                        -0.4296472370624542,
                        0.47684773802757263,
                        0.2013740986585617,
                        -0.7907713651657104,
                        -0.3099416196346283
                    ],
                    [
                        -1.8850730657577515,
                        0.09064781665802002,
                        -0.12075977772474289,
                        -0.08468516916036606,
                        -0.13696159422397614,
                        -0.14820082485675812,
                        0.1035902127623558,
                        -0.06838612258434296,
                        0.36054572463035583,
                        0.05467081069946289,
                        -0.07666119188070297,
                        0.7244451642036438,
                        0.41330063343048096,
                        0.6991651654243469,
                        0.1230914518237114,
                        -0.2435220330953598,
                        0.6398880481719971,
                        0.07720585912466049,
                        -0.09473373740911484,
                        0.10436175018548965,
                        0.24975146353244781,
                        -0.2953982651233673,
                        -0.04769930616021156,
                        -0.07770456373691559,
                        0.149445578455925,
                        -0.4563126266002655,
                        0.07091713696718216,
                        -0.46850094199180603,
                        -0.38266170024871826,
                        0.04720596596598625,
                        0.13617657124996185,
                        -0.024541934952139854,
                        0.12374996393918991,
                        0.020577596500515938,
                        0.05787563696503639,
                        0.11042016744613647,
                        0.1353175789117813,
                        0.40112560987472534,
                        0.10834667831659317,
                        0.14230169355869293,
                        0.18140432238578796,
                        0.025817789137363434,
                        -0.15418775379657745,
                        -0.06280896067619324,
                        -0.07578294724225998,
                        -0.11308594048023224,
                        -0.02212153747677803,
                        0.27048689126968384,
                        -2.5667827129364014,
                        0.043310537934303284,
                        -0.16688859462738037,
                        -0.06434052437543869,
                        -0.14245444536209106,
                        0.0092325359582901,
                        0.0666414126753807,
                        0.06405910849571228,
                        -0.11058332771062851,
                        -0.3052033483982086,
                        -0.054620519280433655,
                        -0.22811338305473328,
                        -0.2639932930469513,
                        0.337361603975296,
                        0.09755810350179672,
                        0.04919615387916565
                    ],
                    [
                        -0.5237412452697754,
                        -0.08055657148361206,
                        0.017229324206709862,
                        0.14648739993572235,
                        -0.00680439081043005,
                        -0.25574007630348206,
                        0.21325503289699554,
                        -0.09327724575996399,
                        0.18699146807193756,
                        -0.05575771629810333,
                        0.08266688138246536,
                        0.9284756779670715,
                        0.5850184559822083,
                        0.6688987612724304,
                        -0.06459175050258636,
                        0.011380533687770367,
                        1.0657596588134766,
                        -0.19605015218257904,
                        -0.03762524202466011,
                        -0.14877349138259888,
                        -0.08551511913537979,
                        0.08775123208761215,
                        0.06445929408073425,
                        -0.03175726160407066,
                        0.16952823102474213,
                        -0.11317121237516403,
                        0.07190601527690887,
                        -0.8125842809677124,
                        -0.2916151285171509,
                        -0.2815031409263611,
                        -0.16357694566249847,
                        -0.24961233139038086,
                        0.12692739069461823,
                        -0.06123892962932587,
                        -0.12303736060857773,
                        -0.21564188599586487,
                        -0.0033477218821644783,
                        0.3439655900001526,
                        0.10527031868696213,
                        -0.0027074001263827085,
                        0.11319594830274582,
                        0.3309447467327118,
                        -0.23425573110580444,
                        -0.0483626089990139,
                        0.09182921797037125,
                        -0.06578812748193741,
                        -0.06849682331085205,
                        0.4268905818462372,
                        -2.880319595336914,
                        0.08545447885990143,
                        0.019340183585882187,
                        -0.2858729958534241,
                        -0.16937100887298584,
                        0.15631693601608276,
                        0.05411827191710472,
                        -0.05499871447682381,
                        0.005314830224961042,
                        0.07780345529317856,
                        0.08220350742340088,
                        -0.15746545791625977,
                        0.11858192086219788,
                        0.3587602376937866,
                        0.013208625838160515,
                        -0.22449027001857758
                    ],
                    [
                        -1.0714514255523682,
                        -0.15437579154968262,
                        -0.15155598521232605,
                        0.3295317590236664,
                        -0.027794741094112396,
                        -0.1542585790157318,
                        0.2114991843700409,
                        0.11800523847341537,
                        0.14474105834960938,
                        0.11888431757688522,
                        0.29986312985420227,
                        0.5148926377296448,
                        0.5218932032585144,
                        -0.11213371157646179,
                        0.07357986271381378,
                        0.07853996753692627,
                        0.6281023621559143,
                        -0.1177549734711647,
                        0.3113888204097748,
                        0.13136765360832214,
                        -0.0814090371131897,
                        -0.25331026315689087,
                        0.06387767195701599,
                        -0.11542779952287674,
                        0.09146702289581299,
                        -0.14975455403327942,
                        0.2717552185058594,
                        -0.33191978931427,
                        -0.0016806499334052205,
                        -0.20022684335708618,
                        -0.22708192467689514,
                        0.14037515223026276,
                        -0.07454906404018402,
                        0.12511901557445526,
                        0.2059478610754013,
                        -0.11158627271652222,
                        0.04564562439918518,
                        0.09659537672996521,
                        0.2376989871263504,
                        0.07199236005544662,
                        -0.044052500277757645,
                        -0.15760943293571472,
                        0.39733392000198364,
                        0.02763482742011547,
                        0.08526159822940826,
                        -0.0995568111538887,
                        -0.16901551187038422,
                        1.0638118982315063,
                        -1.880418062210083,
                        -0.0810849741101265,
                        -0.022431785240769386,
                        0.04000392183661461,
                        0.06982957571744919,
                        -0.08462081104516983,
                        0.04999695345759392,
                        0.04219399765133858,
                        0.13232964277267456,
                        -0.12564903497695923,
                        -0.39596495032310486,
                        -0.3196163475513458,
                        0.23776289820671082,
                        0.10769178718328476,
                        0.07873960584402084,
                        -0.3050869405269623
                    ],
                    [
                        -0.7014821767807007,
                        0.029248418286442757,
                        -0.04821868985891342,
                        -0.11080330610275269,
                        -0.10802403837442398,
                        0.06225741654634476,
                        -0.0952802449464798,
                        -0.0961105152964592,
                        0.031439509242773056,
                        0.12110873311758041,
                        0.07853791862726212,
                        0.6583095788955688,
                        0.36767497658729553,
                        0.29716935753822327,
                        0.06984178721904755,
                        -0.17546667158603668,
                        0.7781985998153687,
                        0.0916270762681961,
                        -0.1190229207277298,
                        -0.37291115522384644,
                        -0.03457684442400932,
                        0.08914564549922943,
                        -0.07441389560699463,
                        -0.07050982862710953,
                        0.10954390466213226,
                        -0.13045896589756012,
                        -0.0213032104074955,
                        -0.4233632981777191,
                        -0.2539517879486084,
                        -0.008303380571305752,
                        0.14373840391635895,
                        -0.04423277825117111,
                        -0.13469530642032623,
                        0.010047555901110172,
                        0.04502320662140846,
                        0.09035152941942215,
                        -0.04545716568827629,
                        0.1691376119852066,
                        0.10164099931716919,
                        -0.06142895668745041,
                        0.01885894127190113,
                        0.09533970803022385,
                        -0.03863612189888954,
                        0.08738302439451218,
                        -0.2143145650625229,
                        -0.18002068996429443,
                        -0.13972027599811554,
                        0.8200312852859497,
                        -1.9257121086120605,
                        0.13955533504486084,
                        -0.5492376089096069,
                        0.20176012814044952,
                        0.021340033039450645,
                        -0.18922723829746246,
                        0.1935310959815979,
                        -0.15464664995670319,
                        0.022468121722340584,
                        0.27140915393829346,
                        0.0953589454293251,
                        0.16812220215797424,
                        -0.23020407557487488,
                        0.14269185066223145,
                        0.12316086888313293,
                        -0.007366659585386515
                    ],
                    [
                        1.5857101678848267,
                        -0.03973916545510292,
                        -0.30205482244491577,
                        -0.2274746149778366,
                        -0.01406850665807724,
                        0.024084340780973434,
                        -0.4567870795726776,
                        0.1225665882229805,
                        0.14875422418117523,
                        -0.0442570336163044,
                        -0.29590943455696106,
                        0.3776533305644989,
                        -0.4341721534729004,
                        0.16427074372768402,
                        0.010422889143228531,
                        -0.09312327206134796,
                        -0.9888091683387756,
                        0.03406449779868126,
                        -0.19590263068675995,
                        -0.6095628142356873,
                        0.06603515148162842,
                        -0.18392997980117798,
                        -0.3621632754802704,
                        -0.2589409351348877,
                        0.28691545128822327,
                        -0.34837839007377625,
                        -0.267185240983963,
                        0.6177449822425842,
                        0.23147252202033997,
                        -0.11588728427886963,
                        -0.048952504992485046,
                        -0.41715484857559204,
                        0.04715890809893608,
                        0.06985558569431305,
                        -0.633112370967865,
                        -0.28872525691986084,
                        -0.09868606925010681,
                        -0.42923539876937866,
                        0.33857229351997375,
                        0.04402199015021324,
                        -0.09992019087076187,
                        0.07935290038585663,
                        -0.008615660481154919,
                        -0.015609103254973888,
                        0.07978982478380203,
                        0.20347335934638977,
                        0.11388518661260605,
                        0.0011184094473719597,
                        0.632002055644989,
                        0.09257513284683228,
                        -0.19080768525600433,
                        -0.9974355101585388,
                        -0.1383560746908188,
                        -0.11162549257278442,
                        -0.2822567820549011,
                        -0.2597070634365082,
                        -0.28886842727661133,
                        -0.005820076446980238,
                        0.02758435532450676,
                        1.0772395133972168,
                        -0.04955250769853592,
                        -0.5437321662902832,
                        0.07794833928346634,
                        0.1836368441581726
                    ],
                    [
                        -2.926894187927246,
                        -0.2235298901796341,
                        0.08231613785028458,
                        0.4986913800239563,
                        0.10900429636240005,
                        -0.002472164109349251,
                        -0.1687742918729782,
                        0.11075078696012497,
                        -0.12441752105951309,
                        0.2960412800312042,
                        0.3740111291408539,
                        0.8349012732505798,
                        -0.10325982421636581,
                        0.3990805745124817,
                        -0.05055682733654976,
                        -0.019989516586065292,
                        -0.44509026408195496,
                        0.12456043809652328,
                        -0.07124695926904678,
                        -0.019553815945982933,
                        0.18640665709972382,
                        -0.053794678300619125,
                        0.14786358177661896,
                        0.1086246445775032,
                        -0.3045887351036072,
                        0.5878469944000244,
                        -0.07395897805690765,
                        0.2075880467891693,
                        0.0359097383916378,
                        -0.007994947023689747,
                        -0.09611980617046356,
                        0.03752991929650307,
                        -0.528977632522583,
                        0.3099501430988312,
                        0.15965305268764496,
                        0.047264181077480316,
                        0.12443030625581741,
                        -0.11578959971666336,
                        -0.08683960139751434,
                        -0.09390778839588165,
                        -0.016044238582253456,
                        -0.23590467870235443,
                        0.10547494888305664,
                        0.1996033638715744,
                        0.10708875954151154,
                        0.11823685467243195,
                        -0.053081173449754715,
                        -0.1619054079055786,
                        -1.3865467309951782,
                        0.15815852582454681,
                        -0.0641683042049408,
                        0.3956940472126007,
                        0.1467471420764923,
                        0.019628671929240227,
                        0.18187777698040009,
                        0.14658716320991516,
                        -0.17981508374214172,
                        0.2515104413032532,
                        -0.1045396476984024,
                        0.13852931559085846,
                        0.1930048018693924,
                        0.47720569372177124,
                        -0.06691407412290573,
                        0.03443820774555206
                    ],
                    [
                        -1.2597507238388062,
                        0.09246167540550232,
                        0.1570826768875122,
                        0.03064851276576519,
                        0.13152095675468445,
                        0.07854002714157104,
                        -0.047337811440229416,
                        -0.11447363346815109,
                        0.19477501511573792,
                        0.17962083220481873,
                        0.4522809684276581,
                        0.11915836483240128,
                        0.3743109405040741,
                        0.11432160437107086,
                        0.26726993918418884,
                        -0.011192458681762218,
                        0.8578665852546692,
                        -0.14157778024673462,
                        0.1279199868440628,
                        -0.048706915229558945,
                        0.06126052886247635,
                        -0.30116158723831177,
                        0.13058218359947205,
                        -0.023855580016970634,
                        -0.029389047995209694,
                        0.25967833399772644,
                        -0.10837341099977493,
                        -0.11746393889188766,
                        -0.03733130171895027,
                        0.004427520092576742,
                        0.015484532341361046,
                        0.16621457040309906,
                        0.11217048019170761,
                        0.03188291937112808,
                        0.012955599464476109,
                        -0.20171958208084106,
                        0.12338490784168243,
                        -0.14834538102149963,
                        0.16047415137290955,
                        0.26341021060943604,
                        0.0657983049750328,
                        -0.17770913243293762,
                        -0.6697813868522644,
                        0.20595265924930573,
                        -0.010928323492407799,
                        0.10906724631786346,
                        -0.1428826004266739,
                        0.07524845004081726,
                        -1.3142189979553223,
                        0.07646825164556503,
                        -0.01845090091228485,
                        -0.14047446846961975,
                        0.05102059245109558,
                        0.26447921991348267,
                        0.06664609909057617,
                        -0.0861600711941719,
                        -0.15584206581115723,
                        0.08928575366735458,
                        0.11699707061052322,
                        -0.036543332040309906,
                        -0.26305121183395386,
                        -0.1510106325149536,
                        -0.2563733458518982,
                        0.19502687454223633
                    ],
                    [
                        0.5494351983070374,
                        0.18983513116836548,
                        0.30523520708084106,
                        -0.2160237729549408,
                        0.1781706064939499,
                        0.20212914049625397,
                        -0.3817899525165558,
                        -0.5002840757369995,
                        0.020084198564291,
                        -0.13556651771068573,
                        -0.25194260478019714,
                        -0.06071574613451958,
                        -0.5134127140045166,
                        -0.881550669670105,
                        0.667711615562439,
                        -0.5316608548164368,
                        0.021491726860404015,
                        0.14220207929611206,
                        0.15388494729995728,
                        0.4504939913749695,
                        0.46488651633262634,
                        -0.20078667998313904,
                        -0.5520785450935364,
                        -0.7307271957397461,
                        -0.016857929527759552,
                        0.6493990421295166,
                        0.08491337299346924,
                        0.11610066145658493,
                        -0.5640410780906677,
                        0.3116169571876526,
                        0.48208558559417725,
                        -0.3284931182861328,
                        0.058894310146570206,
                        -0.507969081401825,
                        0.3145693242549896,
                        -0.15983380377292633,
                        -0.3193472623825073,
                        0.6983503103256226,
                        0.6446866989135742,
                        -0.19327527284622192,
                        -0.6313192844390869,
                        -0.0899176374077797,
                        0.03595368564128876,
                        0.42380058765411377,
                        -0.4534582495689392,
                        0.519726037979126,
                        0.1391104757785797,
                        1.8238334655761719,
                        0.22634193301200867,
                        0.012568420730531216,
                        0.10400526225566864,
                        0.4055638909339905,
                        0.09342726320028305,
                        -0.5725944638252258,
                        0.1940174102783203,
                        -0.4013601243495941,
                        -0.5865756273269653,
                        0.33721619844436646,
                        -0.15824788808822632,
                        0.35689616203308105,
                        -0.9963641166687012,
                        1.5336105823516846,
                        -0.40505823493003845,
                        -0.16596081852912903
                    ],
                    [
                        0.22170500457286835,
                        -0.23191140592098236,
                        -0.051729727536439896,
                        -0.8581980466842651,
                        -0.41213980317115784,
                        0.4931832253932953,
                        0.09503262490034103,
                        -0.1064472571015358,
                        -0.41613051295280457,
                        -0.19883526861667633,
                        0.09045042842626572,
                        -0.47676554322242737,
                        -0.2754102647304535,
                        -0.1136309951543808,
                        -0.09983719140291214,
                        0.3531933128833771,
                        0.3602381646633148,
                        -0.6226669549942017,
                        0.3629303276538849,
                        -0.6742057800292969,
                        -0.16371792554855347,
                        0.481036901473999,
                        0.07214377075433731,
                        -0.01819627732038498,
                        -0.5654890537261963,
                        0.31402596831321716,
                        -0.17919513583183289,
                        -0.16278328001499176,
                        -0.2491731345653534,
                        -0.080619215965271,
                        -0.4312495291233063,
                        -0.8989259600639343,
                        -0.995543897151947,
                        0.7205067276954651,
                        -0.0858975276350975,
                        0.4157494604587555,
                        0.7300536036491394,
                        -0.558478593826294,
                        -0.4723994731903076,
                        -0.3169521987438202,
                        0.18590238690376282,
                        0.4836216866970062,
                        0.6870134472846985,
                        0.4439930021762848,
                        -0.042915668338537216,
                        -0.06869905441999435,
                        -0.35505518317222595,
                        -0.6428913474082947,
                        0.408562034368515,
                        -0.4173421561717987,
                        0.16043037176132202,
                        -0.20127590000629425,
                        -0.3522228002548218,
                        0.4481617510318756,
                        -0.11261525005102158,
                        0.10689131915569305,
                        -0.27667927742004395,
                        0.11199703067541122,
                        -0.597907543182373,
                        -0.5742180347442627,
                        0.11003360897302628,
                        -0.3259498178958893,
                        -0.914764940738678,
                        -0.5337914824485779
                    ],
                    [
                        0.2701267898082733,
                        0.565684974193573,
                        0.500251054763794,
                        0.22552989423274994,
                        -0.026314884424209595,
                        -0.3674275875091553,
                        0.0779920443892479,
                        -0.21987509727478027,
                        0.140355184674263,
                        0.535179853439331,
                        0.3106057941913605,
                        -0.07079290598630905,
                        0.17580097913742065,
                        -0.2557353675365448,
                        0.03507339209318161,
                        1.3180171251296997,
                        -0.2212934046983719,
                        0.06973793357610703,
                        0.37202081084251404,
                        -0.3573089838027954,
                        -0.5687618255615234,
                        -0.13886448740959167,
                        0.30663496255874634,
                        -0.4484914243221283,
                        0.3409927487373352,
                        0.27214890718460083,
                        -0.5069050788879395,
                        0.13533861935138702,
                        -0.15933895111083984,
                        -0.013998123817145824,
                        0.2357405573129654,
                        0.5183196663856506,
                        -0.2770155370235443,
                        -0.05269941687583923,
                        0.02828897535800934,
                        0.07126208394765854,
                        -0.03468414768576622,
                        -0.44936779141426086,
                        -0.24901403486728668,
                        0.1000766009092331,
                        -0.11623285710811615,
                        0.09893471002578735,
                        -0.32547032833099365,
                        0.5208878517150879,
                        0.26825666427612305,
                        0.08888424187898636,
                        0.12616115808486938,
                        -1.0984002351760864,
                        0.13500496745109558,
                        -0.595345139503479,
                        0.36734962463378906,
                        1.764751672744751,
                        -0.15714874863624573,
                        0.5952892899513245,
                        0.1350143998861313,
                        -0.11169928312301636,
                        0.038323916494846344,
                        0.03254299983382225,
                        -0.7318872809410095,
                        0.37960541248321533,
                        0.3550090491771698,
                        0.5012022852897644,
                        0.033622194081544876,
                        -0.8656706809997559
                    ],
                    [
                        0.2416193038225174,
                        -0.10865060240030289,
                        0.1753217726945877,
                        -0.2282218486070633,
                        -0.19472655653953552,
                        -0.14857566356658936,
                        -0.1987730860710144,
                        0.07941760867834091,
                        0.12120513617992401,
                        0.29811879992485046,
                        -0.19868530333042145,
                        -0.4047256410121918,
                        -0.3569580018520355,
                        -0.5503588318824768,
                        0.12622757256031036,
                        -0.11346281319856644,
                        -1.0774699449539185,
                        0.09276646375656128,
                        -0.2811427712440491,
                        0.09435458481311798,
                        0.2086721658706665,
                        0.13884276151657104,
                        0.021114487200975418,
                        -0.0155732287093997,
                        0.10603833198547363,
                        0.2976078391075134,
                        0.23255780339241028,
                        0.608238160610199,
                        0.10371368378400803,
                        0.18524038791656494,
                        -0.16668826341629028,
                        -0.02838645689189434,
                        0.34327608346939087,
                        0.02861546352505684,
                        0.23752857744693756,
                        -0.024614207446575165,
                        -0.2125558704137802,
                        -0.0932411476969719,
                        -0.10683971643447876,
                        0.05055561289191246,
                        0.07695989310741425,
                        -0.31738317012786865,
                        -0.1438215970993042,
                        0.0321911945939064,
                        -0.07735390961170197,
                        -0.06892793625593185,
                        0.06557699292898178,
                        -0.16949915885925293,
                        2.586874008178711,
                        -0.11102449148893356,
                        -0.16784700751304626,
                        0.0776292085647583,
                        0.15556290745735168,
                        0.024274658411741257,
                        0.15677230060100555,
                        -0.14368455111980438,
                        0.29149073362350464,
                        0.11258922517299652,
                        0.00550991203635931,
                        0.18707342445850372,
                        -0.012058881111443043,
                        -0.23693238198757172,
                        0.054578665643930435,
                        0.1156378760933876
                    ],
                    [
                        -4.91550874710083,
                        -0.0999859869480133,
                        -0.21896956861019135,
                        -0.3460260033607483,
                        0.22294960916042328,
                        -0.12023674696683884,
                        -0.18483005464076996,
                        -0.18589091300964355,
                        0.06805742532014847,
                        0.6202638149261475,
                        -0.2558089792728424,
                        0.5565602779388428,
                        0.38719695806503296,
                        0.09632440656423569,
                        0.08297228068113327,
                        0.22279863059520721,
                        -0.1554422825574875,
                        -0.004953872878104448,
                        -0.2104877084493637,
                        -0.585720419883728,
                        0.11917045712471008,
                        -0.027770735323429108,
                        -0.1624382734298706,
                        -0.11888576298952103,
                        0.20745514333248138,
                        -0.3294973373413086,
                        -0.3413742482662201,
                        -0.614261269569397,
                        -0.09990593791007996,
                        -0.12211309373378754,
                        0.23744988441467285,
                        0.05581912770867348,
                        0.09195832908153534,
                        -0.029644185677170753,
                        -0.2965388298034668,
                        -0.05634370818734169,
                        0.34775424003601074,
                        0.1829310953617096,
                        0.11292868852615356,
                        0.33390918374061584,
                        -0.10784348100423813,
                        0.030196785926818848,
                        -0.12065080553293228,
                        0.01317325234413147,
                        -0.12058528512716293,
                        0.08842609822750092,
                        0.16089656949043274,
                        0.15418049693107605,
                        -2.8052022457122803,
                        0.17253901064395905,
                        -0.2709537744522095,
                        0.1258380264043808,
                        0.18369635939598083,
                        -0.0709959864616394,
                        -0.24904640018939972,
                        0.03429729491472244,
                        -0.05132976546883583,
                        -0.39227721095085144,
                        -0.07912503182888031,
                        0.010682426393032074,
                        0.07118266075849533,
                        0.23702682554721832,
                        -0.22720910608768463,
                        -0.12335143983364105
                    ]
                ],
                [
                    -0.9046571850776672,
                    -0.011518965475261211,
                    -0.026064101606607437,
                    0.04647337272763252,
                    0.004784760996699333,
                    0.05258805304765701,
                    -0.026047764346003532,
                    -0.037506602704524994,
                    -0.06943503022193909,
                    -0.13247241079807281,
                    -0.037163395434617996,
                    -0.44242462515830994,
                    -0.1384740173816681,
                    -0.13377539813518524,
                    -0.05392629653215408,
                    0.16512225568294525,
                    0.5361355543136597,
                    1.0054521560668945,
                    1.002455234527588,
                    1.185194730758667,
                    1.0159178972244263,
                    1.0749834775924683,
                    0.9906563758850098,
                    0.9841391444206238,
                    0.972756028175354,
                    1.26045823097229,
                    0.9428584575653076,
                    1.448329210281372,
                    1.2762362957000732,
                    1.1438630819320679,
                    0.9844659566879272,
                    1.1539733409881592,
                    0.08167332410812378,
                    -0.041970305144786835,
                    0.10576906055212021,
                    0.006552408449351788,
                    -0.2134007066488266,
                    -0.3441013693809509,
                    -0.020575599744915962,
                    -0.007686566095799208,
                    -0.03379528969526291,
                    -0.0012684626271948218,
                    -0.010955174453556538,
                    -0.03309675306081772,
                    -0.08259262144565582,
                    -0.022471444681286812,
                    0.06811345368623734,
                    -0.6299533843994141,
                    2.8756656646728516,
                    0.024970736354589462,
                    0.003698619082570076,
                    0.27222976088523865,
                    -0.007628940045833588,
                    0.08413437753915787,
                    -0.046040866523981094,
                    -0.001747169648297131,
                    -0.00507202697917819,
                    0.05973987281322479,
                    0.21114380657672882,
                    0.1958552747964859,
                    0.22129984200000763,
                    -0.02010587602853775,
                    -0.015220739878714085,
                    0.10506908595561981
                ]
            ]
        },
        {
            "type": "dense",
            "activation": "tanh",
            "shape": [
                null,
                null,
                4
            ],
            "weights": [
                [
                    [
                        -0.01224196795374155,
                        0.36192935705184937,
                        -0.18399116396903992,
                        0.0293281152844429
                    ],
                    [
                        -0.30510640144348145,
                        0.546068549156189,
                        0.3861704170703888,
                        0.23256470263004303
                    ],
                    [
                        0.34760329127311707,
                        -0.050813350826501846,
                        0.1061028465628624,
                        0.5093822479248047
                    ],
                    [
                        0.3500593304634094,
                        -0.0808120146393776,
                        0.5255064368247986,
                        0.2620089650154114
                    ],
                    [
                        -0.2746904194355011,
                        0.3854188323020935,
                        -0.5856140851974487,
                        0.48901069164276123
                    ],
                    [
                        -0.03464113175868988,
                        -0.3414534330368042,
                        -0.17452901601791382,
                        -0.07374132424592972
                    ],
                    [
                        -0.04751400649547577,
                        -0.3810642957687378,
                        -0.04604504629969597,
                        -0.06378138810396194
                    ],
                    [
                        -0.48061293363571167,
                        0.44575703144073486,
                        -0.4864353537559509,
                        -0.3748433589935303
                    ],
                    [
                        0.4479016065597534,
                        0.27051594853401184,
                        0.4809536337852478,
                        -0.02612479031085968
                    ],
                    [
                        0.4452052116394043,
                        0.4773174524307251,
                        -0.2579464614391327,
                        0.2439122349023819
                    ],
                    [
                        0.010309695266187191,
                        0.21005508303642273,
                        0.4662252962589264,
                        0.10239401459693909
                    ],
                    [
                        0.8124630451202393,
                        -0.2632651925086975,
                        0.177424356341362,
                        -0.3144746720790863
                    ],
                    [
                        -0.21152092516422272,
                        0.361291766166687,
                        -0.2986355423927307,
                        -0.07479670643806458
                    ],
                    [
                        -0.26052162051200867,
                        0.4380320608615875,
                        -0.5321168303489685,
                        -0.0910116657614708
                    ],
                    [
                        -0.38202986121177673,
                        0.35714444518089294,
                        -0.34762874245643616,
                        -0.49099427461624146
                    ],
                    [
                        -0.08943985402584076,
                        0.45064330101013184,
                        -0.23802249133586884,
                        0.32329076528549194
                    ]
                ],
                [
                    -0.026177383959293365,
                    0.010527336969971657,
                    0.029349811375141144,
                    0.02102886140346527
                ]
            ]
        },
        {
            "type": "dense",
            "activation": "",
            "shape": [
                null,
                null,
                1
            ],
            "weights": [
                [
                    [
                        0.15981069207191467
                    ],
                    [
                        -0.7503042221069336
                    ],
                    [
                        -0.7624908089637756
                    ],
                    [
                        -0.9172658324241638
                    ]
                ],
                [
                    -0.009523698128759861
                ]
            ]
        }
    ]
}